FANN_FLO_2.1
num_layers=3
learning_rate=0.700000
connection_rate=1.000000
network_type=0
learning_momentum=0.000000
training_algorithm=2
train_error_function=1
train_stop_function=0
cascade_output_change_fraction=0.010000
quickprop_decay=-0.000100
quickprop_mu=1.750000
rprop_increase_factor=1.200000
rprop_decrease_factor=0.500000
rprop_delta_min=0.000000
rprop_delta_max=50.000000
rprop_delta_zero=0.100000
cascade_output_stagnation_epochs=12
cascade_candidate_change_fraction=0.010000
cascade_candidate_stagnation_epochs=12
cascade_max_out_epochs=150
cascade_min_out_epochs=50
cascade_max_cand_epochs=150
cascade_min_cand_epochs=50
cascade_num_candidate_groups=2
bit_fail_limit=3.49999994039535522461e-01
cascade_candidate_limit=1.00000000000000000000e+03
cascade_weight_multiplier=4.00000005960464477539e-01
cascade_activation_functions_count=10
cascade_activation_functions=3 5 7 8 10 11 14 15 16 17 
cascade_activation_steepnesses_count=4
cascade_activation_steepnesses=2.50000000000000000000e-01 5.00000000000000000000e-01 7.50000000000000000000e-01 1.00000000000000000000e+00 
layer_sizes=3 11 2 
scale_included=0
neurons (num_inputs, activation_function, activation_steepness)=(0, 0, 0.00000000000000000000e+00) (0, 0, 0.00000000000000000000e+00) (0, 0, 0.00000000000000000000e+00) (3, 5, 5.00000000000000000000e-01) (3, 5, 5.00000000000000000000e-01) (3, 5, 5.00000000000000000000e-01) (3, 5, 5.00000000000000000000e-01) (3, 5, 5.00000000000000000000e-01) (3, 5, 5.00000000000000000000e-01) (3, 5, 5.00000000000000000000e-01) (3, 5, 5.00000000000000000000e-01) (3, 5, 5.00000000000000000000e-01) (3, 5, 5.00000000000000000000e-01) (0, 5, 0.00000000000000000000e+00) (11, 5, 5.00000000000000000000e-01) (0, 5, 0.00000000000000000000e+00) 
connections (connected_to_neuron, weight)=(0, 3.83769869804382324219e+00) (1, 2.70264148712158203125e+00) (2, 3.83581733703613281250e+00) (0, -1.94602191448211669922e+00) (1, 1.71064150333404541016e+00) (2, -2.19431924819946289062e+00) (0, -2.71367907524108886719e-01) (1, 1.04162022471427917480e-01) (2, -3.21297198534011840820e-01) (0, -1.00086319446563720703e+00) (1, -7.99516439437866210938e-01) (2, 4.16162669658660888672e-01) (0, -2.72496938705444335938e-01) (1, 3.08373626321554183960e-02) (2, -1.45395070314407348633e-01) (0, -1.76811385154724121094e+00) (1, -2.57022619247436523438e+00) (2, 1.44469773769378662109e+00) (0, -9.40479636192321777344e-01) (1, -8.55263352394104003906e-01) (2, 4.34514641761779785156e-01) (0, 3.87434077262878417969e+00) (1, 2.80734539031982421875e+00) (2, 3.83251476287841796875e+00) (0, -1.52093029022216796875e+00) (1, 2.87505340576171875000e+00) (2, 1.81459891796112060547e+00) (0, 3.74231791496276855469e+00) (1, 2.72717428207397460938e+00) (2, 3.84895658493041992188e+00) (3, 1.46855556964874267578e+00) (4, 3.78286790847778320312e+00) (5, 2.99526780843734741211e-01) (6, 1.26037633419036865234e+00) (7, 2.06596523523330688477e-01) (8, 1.15398275852203369141e+00) (9, 1.25862491130828857422e+00) (10, 1.50890529155731201172e+00) (11, -2.57698965072631835938e+00) (12, 1.44743323326110839844e+00) (13, -7.69563391804695129395e-02) 
